<?xml version="1.0"?>
<opencv_storage>
<cascade>
  <stageType>BOOST</stageType>
  <featureType>HAAR</featureType>
  <height>24</height>
  <width>24</width>
  <stageParams>
    <boostType>GAB</boostType>
    <minHitRate>9.9900001287460327e-01</minHitRate>
    <maxFalseAlarm>1.0000000149011612e-01</maxFalseAlarm>
    <weightTrimRate>9.4999999999999996e-01</weightTrimRate>
    <maxDepth>1</maxDepth>
    <maxWeakCount>100</maxWeakCount></stageParams>
  <featureParams>
    <maxCatCount>0</maxCatCount>
    <featSize>1</featSize>
    <mode>ALL</mode></featureParams>
  <stageNum>6</stageNum>
  <stages>
    <!-- stage 0 -->
    <_>
      <maxWeakCount>2</maxWeakCount>
      <stageThreshold>-1.8141746520996094e-02</stageThreshold>
      <weakClassifiers>
        <_>
          <internalNodes>
            0 -1 13 -2.6581235229969025e-02</internalNodes>
          <leafValues>
            9.8410809040069580e-01 -9.9279713630676270e-01</leafValues></_>
        <_>
          <internalNodes>
            0 -1 5 1.7378373071551323e-02</internalNodes>
          <leafValues>
            -9.7253960371017456e-01 9.7465538978576660e-01</leafValues></_></weakClassifiers></_>
    <!-- stage 1 -->
    <_>
      <maxWeakCount>3</maxWeakCount>
      <stageThreshold>6.8698692321777344e-01</stageThreshold>
      <weakClassifiers>
        <_>
          <internalNodes>
            0 -1 3 -4.7197103500366211e-02</internalNodes>
          <leafValues>
            9.3568629026412964e-01 -9.2000001668930054e-01</leafValues></_>
        <_>
          <internalNodes>
            0 -1 2 1.3422462344169617e-01</internalNodes>
          <leafValues>
            -9.5686852931976318e-01 8.6735004186630249e-01</leafValues></_>
        <_>
          <internalNodes>
            0 -1 12 4.1982908733189106e-03</internalNodes>
          <leafValues>
            -1. 7.3963689804077148e-01</leafValues></_></weakClassifiers></_>
    <!-- stage 2 -->
    <_>
      <maxWeakCount>5</maxWeakCount>
      <stageThreshold>-2.3060245439410210e-02</stageThreshold>
      <weakClassifiers>
        <_>
          <internalNodes>
            0 -1 6 3.6042951047420502e-02</internalNodes>
          <leafValues>
            -8.5175204277038574e-01 8.7500000000000000e-01</leafValues></_>
        <_>
          <internalNodes>
            0 -1 14 -4.8465318977832794e-02</internalNodes>
          <leafValues>
            8.1921941041946411e-01 -8.5345131158828735e-01</leafValues></_>
        <_>
          <internalNodes>
            0 -1 8 5.6567661464214325e-02</internalNodes>
          <leafValues>
            -8.3922833204269409e-01 6.0731244087219238e-01</leafValues></_>
        <_>
          <internalNodes>
            0 -1 15 3.2352987676858902e-02</internalNodes>
          <leafValues>
            -8.7428510189056396e-01 5.7434159517288208e-01</leafValues></_>
        <_>
          <internalNodes>
            0 -1 9 -5.0797338190022856e-05</internalNodes>
          <leafValues>
            -8.4311228990554810e-01 5.0048905611038208e-01</leafValues></_></weakClassifiers></_>
    <!-- stage 3 -->
    <_>
      <maxWeakCount>2</maxWeakCount>
      <stageThreshold>1.4329936504364014e+00</stageThreshold>
      <weakClassifiers>
        <_>
          <internalNodes>
            0 -1 10 -4.3489337258506566e-05</internalNodes>
          <leafValues>
            -1. 7.8443968296051025e-01</leafValues></_>
        <_>
          <internalNodes>
            0 -1 10 2.2678188543068245e-05</internalNodes>
          <leafValues>
            6.4855390787124634e-01 -1.</leafValues></_></weakClassifiers></_>
    <!-- stage 4 -->
    <_>
      <maxWeakCount>4</maxWeakCount>
      <stageThreshold>2.3694438859820366e-02</stageThreshold>
      <weakClassifiers>
        <_>
          <internalNodes>
            0 -1 11 -2.4818331003189087e-02</internalNodes>
          <leafValues>
            9.2044109106063843e-01 -8.4710234403610229e-01</leafValues></_>
        <_>
          <internalNodes>
            0 -1 7 4.9291234463453293e-02</internalNodes>
          <leafValues>
            -8.9629572629928589e-01 8.5270315408706665e-01</leafValues></_>
        <_>
          <internalNodes>
            0 -1 4 1.9979109987616539e-02</internalNodes>
          <leafValues>
            -7.3551774024963379e-01 9.0004241466522217e-01</leafValues></_>
        <_>
          <internalNodes>
            0 -1 1 2.5024145725183189e-04</internalNodes>
          <leafValues>
            7.5361138582229614e-01 -9.4645923376083374e-01</leafValues></_></weakClassifiers></_>
    <!-- stage 5 -->
    <_>
      <maxWeakCount>1</maxWeakCount>
      <stageThreshold>1.</stageThreshold>
      <weakClassifiers>
        <_>
          <internalNodes>
            0 -1 0 -4.5378559827804565e-01</internalNodes>
          <leafValues>
            -1. 1.</leafValues></_></weakClassifiers></_></stages>
  <features>
    <_>
      <rects>
        <_>
          0 0 15 21 -1.</_>
        <_>
          5 7 5 7 9.</_></rects>
      <tilted>0</tilted></_>
    <_>
      <rects>
        <_>
          0 20 1 4 -1.</_>
        <_>
          0 21 1 2 2.</_></rects>
      <tilted>0</tilted></_>
    <_>
      <rects>
        <_>
          1 0 21 14 -1.</_>
        <_>
          1 7 21 7 2.</_></rects>
      <tilted>0</tilted></_>
    <_>
      <rects>
        <_>
          3 14 18 2 -1.</_>
        <_>
          9 14 6 2 3.</_></rects>
      <tilted>0</tilted></_>
    <_>
      <rects>
        <_>
          8 10 2 8 -1.</_>
        <_>
          6 12 2 4 2.</_></rects>
      <tilted>1</tilted></_>
    <_>
      <rects>
        <_>
          8 10 8 3 -1.</_>
        <_>
          10 10 4 3 2.</_></rects>
      <tilted>0</tilted></_>
    <_>
      <rects>
        <_>
          8 10 4 8 -1.</_>
        <_>
          6 12 4 4 2.</_></rects>
      <tilted>1</tilted></_>
    <_>
      <rects>
        <_>
          9 1 13 10 -1.</_>
        <_>
          9 6 13 5 2.</_></rects>
      <tilted>0</tilted></_>
    <_>
      <rects>
        <_>
          9 4 9 3 -1.</_>
        <_>
          12 7 3 3 3.</_></rects>
      <tilted>1</tilted></_>
    <_>
      <rects>
        <_>
          10 13 1 2 -1.</_>
        <_>
          10 14 1 1 2.</_></rects>
      <tilted>0</tilted></_>
    <_>
      <rects>
        <_>
          11 11 2 2 -1.</_>
        <_>
          11 12 2 1 2.</_></rects>
      <tilted>0</tilted></_>
    <_>
      <rects>
        <_>
          12 7 4 8 -1.</_>
        <_>
          10 9 4 4 2.</_></rects>
      <tilted>1</tilted></_>
    <_>
      <rects>
        <_>
          12 12 1 2 -1.</_>
        <_>
          12 12 1 1 2.</_></rects>
      <tilted>1</tilted></_>
    <_>
      <rects>
        <_>
          13 10 6 2 -1.</_>
        <_>
          15 12 2 2 3.</_></rects>
      <tilted>1</tilted></_>
    <_>
      <rects>
        <_>
          14 9 6 3 -1.</_>
        <_>
          16 11 2 3 3.</_></rects>
      <tilted>1</tilted></_>
    <_>
      <rects>
        <_>
          15 8 7 16 -1.</_>
        <_>
          15 12 7 8 2.</_></rects>
      <tilted>0</tilted></_></features></cascade>
</opencv_storage>
