<?xml version="1.0"?>
<opencv_storage>
<cascade>
  <stageType>BOOST</stageType>
  <featureType>HAAR</featureType>
  <height>30</height>
  <width>30</width>
  <stageParams>
    <boostType>GAB</boostType>
    <minHitRate>9.9900001287460327e-01</minHitRate>
    <maxFalseAlarm>1.0000000149011612e-01</maxFalseAlarm>
    <weightTrimRate>9.4999999999999996e-01</weightTrimRate>
    <maxDepth>1</maxDepth>
    <maxWeakCount>100</maxWeakCount></stageParams>
  <featureParams>
    <maxCatCount>0</maxCatCount>
    <featSize>1</featSize>
    <mode>ALL</mode></featureParams>
  <stageNum>5</stageNum>
  <stages>
    <!-- stage 0 -->
    <_>
      <maxWeakCount>3</maxWeakCount>
      <stageThreshold>-1.0526447296142578e+00</stageThreshold>
      <weakClassifiers>
        <_>
          <internalNodes>
            0 -1 10 3.7453226745128632e-02</internalNodes>
          <leafValues>
            -9.6600568294525146e-01 8.5714286565780640e-01</leafValues></_>
        <_>
          <internalNodes>
            0 -1 8 -2.0011682063341141e-02</internalNodes>
          <leafValues>
            8.7267994880676270e-01 -8.6548614501953125e-01</leafValues></_>
        <_>
          <internalNodes>
            0 -1 5 1.9363399595022202e-02</internalNodes>
          <leafValues>
            -8.2342380285263062e-01 7.7884715795516968e-01</leafValues></_></weakClassifiers></_>
    <!-- stage 1 -->
    <_>
      <maxWeakCount>4</maxWeakCount>
      <stageThreshold>-5.3985416889190674e-01</stageThreshold>
      <weakClassifiers>
        <_>
          <internalNodes>
            0 -1 11 7.5741484761238098e-02</internalNodes>
          <leafValues>
            -9.3220341205596924e-01 6.0975611209869385e-01</leafValues></_>
        <_>
          <internalNodes>
            0 -1 0 -6.0589991509914398e-02</internalNodes>
          <leafValues>
            7.9810893535614014e-01 -7.9272347688674927e-01</leafValues></_>
        <_>
          <internalNodes>
            0 -1 22 3.0786123126745224e-02</internalNodes>
          <leafValues>
            -8.3888107538223267e-01 7.0320385694503784e-01</leafValues></_>
        <_>
          <internalNodes>
            0 -1 1 -1.3795375125482678e-03</internalNodes>
          <leafValues>
            4.8199433088302612e-01 -9.3020933866500854e-01</leafValues></_></weakClassifiers></_>
    <!-- stage 2 -->
    <_>
      <maxWeakCount>6</maxWeakCount>
      <stageThreshold>-4.1876807808876038e-01</stageThreshold>
      <weakClassifiers>
        <_>
          <internalNodes>
            0 -1 13 -6.1595261096954346e-02</internalNodes>
          <leafValues>
            9.0909093618392944e-01 -8.7131369113922119e-01</leafValues></_>
        <_>
          <internalNodes>
            0 -1 19 -1.0793898254632950e-02</internalNodes>
          <leafValues>
            6.3440406322479248e-01 -8.1281590461730957e-01</leafValues></_>
        <_>
          <internalNodes>
            0 -1 6 -3.7644792348146439e-02</internalNodes>
          <leafValues>
            7.2578442096710205e-01 -5.6504476070404053e-01</leafValues></_>
        <_>
          <internalNodes>
            0 -1 18 -2.6896269991993904e-03</internalNodes>
          <leafValues>
            4.2410555481910706e-01 -1.</leafValues></_>
        <_>
          <internalNodes>
            0 -1 12 -6.1720964731648564e-04</internalNodes>
          <leafValues>
            6.7252850532531738e-01 -6.0743325948715210e-01</leafValues></_>
        <_>
          <internalNodes>
            0 -1 15 -1.2461327016353607e-02</internalNodes>
          <leafValues>
            8.5534012317657471e-01 -5.5705696344375610e-01</leafValues></_></weakClassifiers></_>
    <!-- stage 3 -->
    <_>
      <maxWeakCount>5</maxWeakCount>
      <stageThreshold>-4.3725562095642090e-01</stageThreshold>
      <weakClassifiers>
        <_>
          <internalNodes>
            0 -1 17 9.9530495703220367e-02</internalNodes>
          <leafValues>
            -8.9159893989562988e-01 9.2307692766189575e-01</leafValues></_>
        <_>
          <internalNodes>
            0 -1 3 9.6388846635818481e-02</internalNodes>
          <leafValues>
            -7.8796356916427612e-01 9.0164142847061157e-01</leafValues></_>
        <_>
          <internalNodes>
            0 -1 9 -3.0011519789695740e-02</internalNodes>
          <leafValues>
            5.2381467819213867e-01 -7.8293168544769287e-01</leafValues></_>
        <_>
          <internalNodes>
            0 -1 14 8.5932260844856501e-05</internalNodes>
          <leafValues>
            3.6898219585418701e-01 -9.1246056556701660e-01</leafValues></_>
        <_>
          <internalNodes>
            0 -1 21 2.9544500648626126e-05</internalNodes>
          <leafValues>
            3.4950998425483704e-01 -9.5185101032257080e-01</leafValues></_></weakClassifiers></_>
    <!-- stage 4 -->
    <_>
      <maxWeakCount>6</maxWeakCount>
      <stageThreshold>-4.7555819153785706e-01</stageThreshold>
      <weakClassifiers>
        <_>
          <internalNodes>
            0 -1 20 -5.2504956722259521e-02</internalNodes>
          <leafValues>
            1. -8.9189189672470093e-01</leafValues></_>
        <_>
          <internalNodes>
            0 -1 4 -4.6805299818515778e-02</internalNodes>
          <leafValues>
            9.3050140142440796e-01 -8.1336444616317749e-01</leafValues></_>
        <_>
          <internalNodes>
            0 -1 16 3.7128981202840805e-03</internalNodes>
          <leafValues>
            4.3151751160621643e-01 -9.5324069261550903e-01</leafValues></_>
        <_>
          <internalNodes>
            0 -1 2 -3.8432385772466660e-03</internalNodes>
          <leafValues>
            8.4831464290618896e-01 -5.3500974178314209e-01</leafValues></_>
        <_>
          <internalNodes>
            0 -1 7 5.5809534387663007e-05</internalNodes>
          <leafValues>
            4.7289204597473145e-01 -9.7969013452529907e-01</leafValues></_>
        <_>
          <internalNodes>
            0 -1 23 2.1082259714603424e-02</internalNodes>
          <leafValues>
            -5.2302604913711548e-01 8.7794661521911621e-01</leafValues></_></weakClassifiers></_></stages>
  <features>
    <_>
      <rects>
        <_>
          0 5 8 13 -1.</_>
        <_>
          4 5 4 13 2.</_></rects>
      <tilted>0</tilted></_>
    <_>
      <rects>
        <_>
          2 6 9 1 -1.</_>
        <_>
          5 6 3 1 3.</_></rects>
      <tilted>0</tilted></_>
    <_>
      <rects>
        <_>
          3 3 2 2 -1.</_>
        <_>
          3 3 2 1 2.</_></rects>
      <tilted>1</tilted></_>
    <_>
      <rects>
        <_>
          4 17 24 9 -1.</_>
        <_>
          10 17 12 9 2.</_></rects>
      <tilted>0</tilted></_>
    <_>
      <rects>
        <_>
          5 10 7 18 -1.</_>
        <_>
          5 19 7 9 2.</_></rects>
      <tilted>0</tilted></_>
    <_>
      <rects>
        <_>
          6 15 16 3 -1.</_>
        <_>
          10 15 8 3 2.</_></rects>
      <tilted>0</tilted></_>
    <_>
      <rects>
        <_>
          7 4 8 6 -1.</_>
        <_>
          5 6 8 2 3.</_></rects>
      <tilted>1</tilted></_>
    <_>
      <rects>
        <_>
          7 11 7 4 -1.</_>
        <_>
          7 13 7 2 2.</_></rects>
      <tilted>0</tilted></_>
    <_>
      <rects>
        <_>
          8 6 4 20 -1.</_>
        <_>
          8 6 2 10 2.</_>
        <_>
          10 16 2 10 2.</_></rects>
      <tilted>0</tilted></_>
    <_>
      <rects>
        <_>
          8 13 8 12 -1.</_>
        <_>
          8 13 4 6 2.</_>
        <_>
          12 19 4 6 2.</_></rects>
      <tilted>0</tilted></_>
    <_>
      <rects>
        <_>
          9 11 12 7 -1.</_>
        <_>
          12 11 6 7 2.</_></rects>
      <tilted>0</tilted></_>
    <_>
      <rects>
        <_>
          9 11 12 9 -1.</_>
        <_>
          13 11 4 9 3.</_></rects>
      <tilted>0</tilted></_>
    <_>
      <rects>
        <_>
          9 21 3 1 -1.</_>
        <_>
          10 21 1 1 3.</_></rects>
      <tilted>0</tilted></_>
    <_>
      <rects>
        <_>
          10 1 9 9 -1.</_>
        <_>
          10 4 9 3 3.</_></rects>
      <tilted>0</tilted></_>
    <_>
      <rects>
        <_>
          11 20 2 1 -1.</_>
        <_>
          12 20 1 1 2.</_></rects>
      <tilted>0</tilted></_>
    <_>
      <rects>
        <_>
          12 3 5 6 -1.</_>
        <_>
          12 5 5 2 3.</_></rects>
      <tilted>0</tilted></_>
    <_>
      <rects>
        <_>
          13 4 6 4 -1.</_>
        <_>
          12 5 6 2 2.</_></rects>
      <tilted>1</tilted></_>
    <_>
      <rects>
        <_>
          13 11 10 16 -1.</_>
        <_>
          13 11 5 8 2.</_>
        <_>
          18 19 5 8 2.</_></rects>
      <tilted>0</tilted></_>
    <_>
      <rects>
        <_>
          14 18 3 9 -1.</_>
        <_>
          14 21 3 3 3.</_></rects>
      <tilted>0</tilted></_>
    <_>
      <rects>
        <_>
          15 0 15 4 -1.</_>
        <_>
          15 1 15 2 2.</_></rects>
      <tilted>0</tilted></_>
    <_>
      <rects>
        <_>
          17 7 12 6 -1.</_>
        <_>
          21 7 4 6 3.</_></rects>
      <tilted>0</tilted></_>
    <_>
      <rects>
        <_>
          22 3 3 1 -1.</_>
        <_>
          23 3 1 1 3.</_></rects>
      <tilted>0</tilted></_>
    <_>
      <rects>
        <_>
          25 3 2 16 -1.</_>
        <_>
          21 7 2 8 2.</_></rects>
      <tilted>1</tilted></_>
    <_>
      <rects>
        <_>
          26 0 4 11 -1.</_>
        <_>
          26 0 2 11 2.</_></rects>
      <tilted>1</tilted></_></features></cascade>
</opencv_storage>
